Language model created by QuickLM on Wed Dec 16 13:01:07 EST 2020
Copyright (c) 1996-2010 Carnegie Mellon University and Alexander I. Rudnicky

The model is in standard ARPA format, designed by Doug Paul while he was at MITRE.

The code that was used to produce this language model is available in Open Source.
Please visit http://www.speech.cs.cmu.edu/tools/ for more information

The (fixed) discount mass is 0.5. The backoffs are computed using the ratio method.
This model based on a corpus of 11 sentences and 16 words

\data\
ngram 1=16
ngram 2=25
ngram 3=17

\1-grams:
-0.8507 </s> -0.3010
-0.8507 <s> -0.2350
-1.8921 ADD -0.2782
-1.8921 BROWSER -0.2350
-1.8921 DECREASE -0.2782
-1.8921 DISABLE -0.2954
-1.8921 INCREASE -0.2782
-1.8921 LOUDER -0.2350
-1.8921 OPEN -0.2954
-1.8921 QUIETER -0.2350
-1.8921 REBOOT -0.2350
-1.8921 SHUTDOWN -0.2350
-1.8921 SLEEP -0.2350
-1.8921 SOUND -0.2350
-1.8921 TAKE -0.2782
-1.2900 VOLUME -0.2350

\2-grams:
-1.3424 <s> ADD 0.0000
-1.3424 <s> DECREASE 0.0000
-1.3424 <s> DISABLE 0.0000
-1.3424 <s> INCREASE 0.0000
-1.3424 <s> LOUDER 0.0000
-1.3424 <s> OPEN 0.0000
-1.3424 <s> QUIETER 0.0000
-1.3424 <s> REBOOT 0.0000
-1.3424 <s> SHUTDOWN 0.0000
-1.3424 <s> SLEEP 0.0000
-1.3424 <s> TAKE 0.0000
-0.3010 ADD VOLUME 0.0000
-0.3010 BROWSER </s> -0.3010
-0.3010 DECREASE VOLUME 0.0000
-0.3010 DISABLE SOUND 0.0000
-0.3010 INCREASE VOLUME 0.0000
-0.3010 LOUDER </s> -0.3010
-0.3010 OPEN BROWSER 0.0000
-0.3010 QUIETER </s> -0.3010
-0.3010 REBOOT </s> -0.3010
-0.3010 SHUTDOWN </s> -0.3010
-0.3010 SLEEP </s> -0.3010
-0.3010 SOUND </s> -0.3010
-0.3010 TAKE VOLUME 0.0000
-0.3010 VOLUME </s> -0.3010

\3-grams:
-0.3010 <s> ADD VOLUME
-0.3010 <s> DECREASE VOLUME
-0.3010 <s> DISABLE SOUND
-0.3010 <s> INCREASE VOLUME
-0.3010 <s> LOUDER </s>
-0.3010 <s> OPEN BROWSER
-0.3010 <s> QUIETER </s>
-0.3010 <s> REBOOT </s>
-0.3010 <s> SHUTDOWN </s>
-0.3010 <s> SLEEP </s>
-0.3010 <s> TAKE VOLUME
-0.3010 ADD VOLUME </s>
-0.3010 DECREASE VOLUME </s>
-0.3010 DISABLE SOUND </s>
-0.3010 INCREASE VOLUME </s>
-0.3010 OPEN BROWSER </s>
-0.3010 TAKE VOLUME </s>

\end\
